{"weights":[0.5174723095210501,0.8328259658997484,0.3688363454246061,0.2903723064930106,0.32825446547577164,0.018288218208816653,0.07651383819095448,0.22863989596831724,0.32136494857961917,-3.331660510672849e137,-6.997984768922711e135,-2.7905206934577798e134,-1.9963754488747555e133,-2.097115010227127e132,-2.4570021404980756e131,-7.992039178578484e130,0.8184441339453608,0.09925220453867412,0.41122945812109046,0.6992530414847943,0.3715840128158405,0.8733061769867192,0.4085632087838542,0.829186962603986,0.5970872927351453,0.5187763121299768,0.30037598723585646,0.05651854812554524,0.7897044284614116,0.5606703010593509,0.9734763343190578,0.5166378652295922,0.19906149089292136,0.46102698503220685,0.4159722586752822,0.554657741170906,-1.8379566106179933e137,-3.860535107296308e135,-1.5394293443695171e134,-1.1013281340582023e133,-1.1569025067006765e132,-1.3554392207622844e131,-4.408918974046187e130,0.755417349948142,0.17915039474535133,0.3369034523044526,0.15597833653076643,0.6841146784054545,0.6035623654693998,0.427677879788692,0.8417305180452793,0.68925689870762,0.7134094215182436,0.3278253467599087,0.6381565986575181,0.42238638546614826,0.00800433332371131,0.9589748550099437,0.5108900501855972,0.16935863648691785,0.13660018599847124,0.25667977052777113,0.28480152383539437,0.9327917461981917,0.3064335107870576,0.01669599601134264,0.8856526266797944,0.5060119008533069,0.09958916693937092,0.9271649068604252,0.5957108976656993,0.5647179084337377,-3.7106770083377962,-0.14135810144987185,-0.14192908012988154,-0.14041546357789184,-0.13347829482482926,-0.122907991798265,-0.04844029932017947,-0.00617932780886693,0.0015063759801258875,0.7170111582848341,0.16129433472515065,0.8224374002578331,0.2372559528115793,0.8901762356644863,0.9428312262977461,0.17162638281626108,0.8359976330644067,-5.56271206491644e136,0.32423641688843363,0.16987147145759107,0.3266287923543352,0.438933516848634,0.10113804153338668,0.5996658323309131,0.5443974554195928,0.4672518430616588,-1.9242279563826123e136],"biases":[0.2876921709562723,-1.8864204074976679e61,0.7820957746402504,0.8173416273600533,-1.0406699143739377e61,0.7010918871248039,0.2900085690015489,0.5336382058159015,0.001385364508857262,0.34672363611659407,0.4408714308502717]}